[
  {
    "name": "conv_1_1",
    "input_shape": [
      28,
      28,
      1
    ],
    "output_shape": [
      26,
      26,
      10
    ],
    "num_neurons": 10,
    "weights": [
      {
        "bias": 0.09575504064559937,
        "weights": [
          [
            [
              0.2839101254940033
            ],
            [
              0.0641709640622139
            ],
            [
              -0.13751338422298431
            ]
          ],
          [
            [
              -0.12904353439807892
            ],
            [
              -0.11775767803192139
            ],
            [
              -0.5237137675285339
            ]
          ],
          [
            [
              0.2504543364048004
            ],
            [
              0.406614750623703
            ],
            [
              -0.15137946605682373
            ]
          ]
        ]
      },
      {
        "bias": 0.11741054058074951,
        "weights": [
          [
            [
              0.2054642140865326
            ],
            [
              -0.22229167819023132
            ],
            [
              -0.004689299035817385
            ]
          ],
          [
            [
              -0.14167536795139313
            ],
            [
              -0.39405637979507446
            ],
            [
              0.3352111577987671
            ]
          ],
          [
            [
              -0.7454149127006531
            ],
            [
              -0.35553836822509766
            ],
            [
              0.3986036777496338
            ]
          ]
        ]
      },
      {
        "bias": -0.020180784165859222,
        "weights": [
          [
            [
              0.062453072518110275
            ],
            [
              -0.07147303968667984
            ],
            [
              0.1938619464635849
            ]
          ],
          [
            [
              -0.24869662523269653
            ],
            [
              0.44967660307884216
            ],
            [
              0.4710627794265747
            ]
          ],
          [
            [
              -0.2255231738090515
            ],
            [
              -0.04732886701822281
            ],
            [
              0.22456958889961243
            ]
          ]
        ]
      },
      {
        "bias": 0.10355814546346664,
        "weights": [
          [
            [
              -0.08522756397724152
            ],
            [
              -0.42389458417892456
            ],
            [
              0.15989109873771667
            ]
          ],
          [
            [
              -0.27854034304618835
            ],
            [
              -0.23510566353797913
            ],
            [
              0.10683871805667877
            ]
          ],
          [
            [
              0.41322872042655945
            ],
            [
              0.13361836969852448
            ],
            [
              0.12118862569332123
            ]
          ]
        ]
      },
      {
        "bias": -0.0005148375639691949,
        "weights": [
          [
            [
              -0.30748865008354187
            ],
            [
              -0.04062771797180176
            ],
            [
              -0.062015220522880554
            ]
          ],
          [
            [
              0.3168868124485016
            ],
            [
              0.2654956579208374
            ],
            [
              0.07460261136293411
            ]
          ],
          [
            [
              -0.10687971115112305
            ],
            [
              0.2209807187318802
            ],
            [
              0.10719755291938782
            ]
          ]
        ]
      },
      {
        "bias": -0.0034764320589601994,
        "weights": [
          [
            [
              0.25855183601379395
            ],
            [
              -0.15831242501735687
            ],
            [
              -0.20918333530426025
            ]
          ],
          [
            [
              0.424258828163147
            ],
            [
              0.17921921610832214
            ],
            [
              -0.21752788126468658
            ]
          ],
          [
            [
              -0.16883939504623413
            ],
            [
              0.04222413897514343
            ],
            [
              0.13350921869277954
            ]
          ]
        ]
      },
      {
        "bias": 0.0,
        "weights": [
          [
            [
              -0.12396785616874695
            ],
            [
              -0.16654802858829498
            ],
            [
              -0.24108323454856873
            ]
          ],
          [
            [
              -0.13409079611301422
            ],
            [
              -0.005804777145385742
            ],
            [
              -0.05624832212924957
            ]
          ],
          [
            [
              -0.003313720226287842
            ],
            [
              -0.21736745536327362
            ],
            [
              -0.09869155287742615
            ]
          ]
        ]
      },
      {
        "bias": -0.006451255176216364,
        "weights": [
          [
            [
              -0.10635393857955933
            ],
            [
              0.21029475331306458
            ],
            [
              0.5023719668388367
            ]
          ],
          [
            [
              -0.05023597925901413
            ],
            [
              -0.06451443582773209
            ],
            [
              0.12769974768161774
            ]
          ],
          [
            [
              0.010534352622926235
            ],
            [
              -0.3681350648403168
            ],
            [
              -0.03253861144185066
            ]
          ]
        ]
      },
      {
        "bias": 0.17364072799682617,
        "weights": [
          [
            [
              0.4493928551673889
            ],
            [
              0.23920927941799164
            ],
            [
              0.21689939498901367
            ]
          ],
          [
            [
              0.07187344133853912
            ],
            [
              -0.08230409026145935
            ],
            [
              -0.15487490594387054
            ]
          ],
          [
            [
              -0.25966230034828186
            ],
            [
              -0.5766816735267639
            ],
            [
              -0.2774975001811981
            ]
          ]
        ]
      },
      {
        "bias": 0.06527424603700638,
        "weights": [
          [
            [
              -0.005373563151806593
            ],
            [
              -0.4555744230747223
            ],
            [
              -0.3826313018798828
            ]
          ],
          [
            [
              0.10470905154943466
            ],
            [
              0.020365828648209572
            ],
            [
              -0.023446308448910713
            ]
          ],
          [
            [
              -0.03865105286240578
            ],
            [
              0.20900236070156097
            ],
            [
              0.31193432211875916
            ]
          ]
        ]
      }
    ]
  },
  {
    "name": "relu_1_1",
    "input_shape": [
      26,
      26,
      10
    ],
    "output_shape": [
      26,
      26,
      10
    ],
    "num_neurons": 10
  },
  {
    "name": "conv_1_2",
    "input_shape": [
      26,
      26,
      10
    ],
    "output_shape": [
      24,
      24,
      10
    ],
    "num_neurons": 10,
    "weights": [
      {
        "bias": 0.044939760118722916,
        "weights": [
          [
            [
              0.4149493873119354,
              -0.19931310415267944,
              -0.19869543612003326,
              0.025936296209692955,
              -0.03198688477277756,
              0.03656234219670296,
              -0.06760553270578384,
              0.013163914903998375,
              -0.033251579850912094,
              -0.21057938039302826
            ],
            [
              0.21415098011493683,
              -0.1973717212677002,
              -0.3929564654827118,
              0.21824319660663605,
              -0.03970830887556076,
              0.07586432993412018,
              -0.11616195738315582,
              -0.16356049478054047,
              -0.18353213369846344,
              -0.007335146423429251
            ],
            [
              0.13686105608940125,
              0.02141588367521763,
              -0.19834314286708832,
              0.3254419267177582,
              -0.3214297294616699,
              -0.3331046998500824,
              0.12551212310791016,
              -0.22890201210975647,
              -0.011605150066316128,
              -0.12843245267868042
            ]
          ],
          [
            [
              0.3001388907432556,
              -0.20062200725078583,
              0.1735895574092865,
              0.1330462396144867,
              0.18938912451267242,
              0.1253466159105301,
              0.042265817523002625,
              -0.37334951758384705,
              -0.4857635498046875,
              0.21399429440498352
            ],
            [
              -0.08459509164094925,
              -0.6611573100090027,
              -0.15474534034729004,
              0.18093790113925934,
              0.09469065070152283,
              0.07677952200174332,
              -0.06037535518407822,
              -0.27469173073768616,
              -0.2684903144836426,
              0.2601393163204193
            ],
            [
              -0.028087226673960686,
              -0.03175996243953705,
              -0.0530746690928936,
              0.14777320623397827,
              0.1571040004491806,
              -0.06370338797569275,
              -0.017074450850486755,
              -0.04085124284029007,
              -0.3316609859466553,
              -0.13297130167484283
            ]
          ],
          [
            [
              0.12822069227695465,
              -0.14892733097076416,
              0.20097126066684723,
              -0.20080652832984924,
              0.01985994726419449,
              0.117961086332798,
              -0.038823097944259644,
              0.1295357644557953,
              -0.1024685800075531,
              0.07723943889141083
            ],
            [
              -0.10890062153339386,
              -0.4010036587715149,
              -0.01302268449217081,
              -0.017479291185736656,
              0.043757565319538116,
              0.19470661878585815,
              0.11481928825378418,
              -0.06920037418603897,
              -0.2506001889705658,
              0.24329473078250885
            ],
            [
              0.09772050380706787,
              -0.5656116008758545,
              0.10708797723054886,
              0.4745289385318756,
              0.15446461737155914,
              0.18017755448818207,
              -0.1369175761938095,
              0.24918951094150543,
              -0.09794729948043823,
              0.16860173642635345
            ]
          ]
        ]
      },
      {
        "bias": 0.09522709995508194,
        "weights": [
          [
            [
              0.2468915581703186,
              0.23829567432403564,
              0.20027519762516022,
              -0.07826991379261017,
              0.23989909887313843,
              0.15152990818023682,
              -0.00787554681301117,
              0.10148252546787262,
              -0.3504463732242584,
              -0.18238750100135803
            ],
            [
              0.4327801764011383,
              0.31921881437301636,
              -0.08723174780607224,
              -0.045072298496961594,
              -0.020950913429260254,
              0.32878366112709045,
              -0.1458141803741455,
              -0.16262128949165344,
              -0.34558701515197754,
              0.04214860871434212
            ],
            [
              0.05205576494336128,
              -0.12175950407981873,
              -0.3987663686275482,
              0.06847643852233887,
              0.09924730658531189,
              0.21595707535743713,
              0.09110423922538757,
              -0.3579804003238678,
              0.11036884784698486,
              0.0062974076718091965
            ]
          ],
          [
            [
              0.09136507660150528,
              0.3259000778198242,
              0.31439217925071716,
              -0.09736046940088272,
              -0.015392880886793137,
              -0.10950466990470886,
              0.015970557928085327,
              0.023668823763728142,
              -0.6566057205200195,
              -0.5064880847930908
            ],
            [
              0.42725610733032227,
              0.04868212342262268,
              0.09542690217494965,
              -0.3566603660583496,
              -0.027181146666407585,
              0.34723934531211853,
              -0.1709183156490326,
              0.044352564960718155,
              -0.19151559472084045,
              0.05131794512271881
            ],
            [
              0.2607385218143463,
              -0.2039192020893097,
              -0.16361838579177856,
              0.03139358386397362,
              -0.11813121289014816,
              0.08103538304567337,
              -0.11733027547597885,
              -0.5047008395195007,
              0.10346610844135284,
              0.12410204112529755
            ]
          ],
          [
            [
              -0.062158454209566116,
              0.3286282420158386,
              0.025467850267887115,
              -0.3733692169189453,
              0.14597958326339722,
              0.02550193853676319,
              0.12281453609466553,
              0.28294509649276733,
              -0.5009777545928955,
              -0.21272309124469757
            ],
            [
              0.28467854857444763,
              -0.062075864523649216,
              0.13477811217308044,
              -0.3011311888694763,
              0.15380217134952545,
              -0.014694223180413246,
              -0.14359253644943237,
              -0.16900701820850372,
              -0.2926050126552582,
              0.09376240521669388
            ],
            [
              0.018374066799879074,
              -0.13073450326919556,
              -0.1707059144973755,
              0.09538460522890091,
              -0.09117628633975983,
              0.14811676740646362,
              -0.068971648812294,
              -0.3281247019767761,
              -0.1568574458360672,
              0.10005678236484528
            ]
          ]
        ]
      },
      {
        "bias": 0.053004853427410126,
        "weights": [
          [
            [
              0.13377808034420013,
              0.08523336797952652,
              0.012449946254491806,
              -0.0599026083946228,
              0.1199931725859642,
              0.03117973543703556,
              -0.12581866979599,
              0.16579142212867737,
              -0.17372477054595947,
              -0.07672213762998581
            ],
            [
              0.0909498855471611,
              0.3016452491283417,
              0.1496955156326294,
              0.08299925178289413,
              0.16586682200431824,
              -0.0240627434104681,
              -0.019917726516723633,
              -0.0760859027504921,
              -0.21548166871070862,
              -0.10945629328489304
            ],
            [
              0.15600089728832245,
              0.21227701008319855,
              -0.02474946156144142,
              -0.038403529673814774,
              0.005389863159507513,
              0.10038914531469345,
              -0.08116301149129868,
              -0.0822296217083931,
              -0.2898729145526886,
              -0.3685649335384369
            ]
          ],
          [
            [
              -0.01975470408797264,
              0.270515114068985,
              0.20755402743816376,
              0.026518743485212326,
              0.16126950085163116,
              -0.15093281865119934,
              -0.15687787532806396,
              0.1334739774465561,
              -0.11152609437704086,
              -0.40776339173316956
            ],
            [
              0.12445106357336044,
              0.4188685715198517,
              0.12947794795036316,
              -0.015322329476475716,
              -0.08487363159656525,
              0.034385886043310165,
              0.159053236246109,
              0.05556630715727806,
              -0.2720445990562439,
              -0.13824908435344696
            ],
            [
              0.04841481149196625,
              -0.1353875696659088,
              0.019223451614379883,
              -0.19786277413368225,
              0.018415072932839394,
              0.04878069460391998,
              -0.15429794788360596,
              -0.2679600715637207,
              -0.3017517030239105,
              -0.343835711479187
            ]
          ],
          [
            [
              0.027001990005373955,
              0.11436472088098526,
              0.16532714664936066,
              -0.30149415135383606,
              0.12778465449810028,
              -0.051362019032239914,
              -0.0762491449713707,
              0.10204941034317017,
              -0.4024597704410553,
              -0.23775246739387512
            ],
            [
              -0.026291072368621826,
              0.41500377655029297,
              0.024046778678894043,
              0.09465760737657547,
              0.19263021647930145,
              0.14302803575992584,
              -0.14615009725093842,
              0.08146022260189056,
              -0.11853683739900589,
              0.01009424403309822
            ],
            [
              0.33876004815101624,
              0.09105782955884933,
              -0.16531747579574585,
              -0.3839643597602844,
              -0.04053376987576485,
              -0.01647411845624447,
              0.13913258910179138,
              -0.07375606149435043,
              -0.018173208460211754,
              -0.30133935809135437
            ]
          ]
        ]
      },
      {
        "bias": 0.008575214073061943,
        "weights": [
          [
            [
              -0.025934260338544846,
              -0.4940631687641144,
              0.16147148609161377,
              0.04998784884810448,
              0.1751423478126526,
              -0.11595071107149124,
              -0.027378052473068237,
              0.15620234608650208,
              0.0311910267919302,
              0.11813698709011078
            ],
            [
              0.17522834241390228,
              -0.11546050012111664,
              -0.012630872428417206,
              0.0951976403594017,
              0.11562571674585342,
              0.15147818624973297,
              0.10777363181114197,
              -0.0457683689892292,
              -0.06363154947757721,
              0.02908010594546795
            ],
            [
              -0.16471043229103088,
              -0.4090723395347595,
              0.23052248358726501,
              0.059479985386133194,
              -0.06872064620256424,
              0.07803572714328766,
              0.1634889543056488,
              0.09203459322452545,
              -0.17284995317459106,
              0.11232917755842209
            ]
          ],
          [
            [
              -0.20919770002365112,
              -0.12372701615095139,
              0.04261111468076706,
              0.05826055631041527,
              0.13463494181632996,
              0.12182959169149399,
              -0.16435469686985016,
              0.2201681137084961,
              0.44556736946105957,
              -0.2421078234910965
            ],
            [
              -0.3956541121006012,
              -0.09484834223985672,
              0.14566175639629364,
              -0.16027884185314178,
              0.05676062032580376,
              0.05114574357867241,
              0.16562747955322266,
              0.1306292712688446,
              0.17639052867889404,
              -0.0674203485250473
            ],
            [
              -0.22827550768852234,
              -0.2011454701423645,
              0.17720580101013184,
              -0.5326418280601501,
              0.14020182192325592,
              0.08302298933267593,
              -0.18075662851333618,
              0.001029198057949543,
              0.0949932336807251,
              -0.16158786416053772
            ]
          ],
          [
            [
              -0.1766250878572464,
              -0.1736195981502533,
              -0.24786539375782013,
              -0.1350184977054596,
              -0.16347920894622803,
              -0.2692700922489166,
              0.1801944077014923,
              0.17760780453681946,
              0.25748586654663086,
              -0.27663615345954895
            ],
            [
              -0.022788435220718384,
              -0.029915640130639076,
              -0.16653519868850708,
              -0.44413289427757263,
              -0.18308617174625397,
              0.027618274092674255,
              0.17809635400772095,
              0.18423806130886078,
              0.1138809472322464,
              -0.36376115679740906
            ],
            [
              -0.13707105815410614,
              0.0820833146572113,
              0.05534222722053528,
              -0.5416666865348816,
              -0.26345744729042053,
              0.05228065326809883,
              0.03002321720123291,
              0.18827934563159943,
              0.20034746825695038,
              -0.3766953945159912
            ]
          ]
        ]
      },
      {
        "bias": 0.011133614927530289,
        "weights": [
          [
            [
              0.25300806760787964,
              0.07090313732624054,
              -0.1882479190826416,
              -0.2321074903011322,
              -0.16063237190246582,
              0.18505404889583588,
              0.16065821051597595,
              -0.4908702075481415,
              -0.35032036900520325,
              0.07263409346342087
            ],
            [
              0.15474925935268402,
              -0.04249010235071182,
              -0.05260265991091728,
              0.12234780937433243,
              -0.0414586216211319,
              0.10363629460334778,
              0.011962443590164185,
              -0.4791492521762848,
              -0.3074074983596802,
              0.3631521463394165
            ],
            [
              -0.023289669305086136,
              -0.09701189398765564,
              -0.055780671536922455,
              0.4021541476249695,
              0.09687941521406174,
              -0.4436265528202057,
              -0.01918192207813263,
              -0.026171427220106125,
              -0.3917871117591858,
              0.27410387992858887
            ]
          ],
          [
            [
              -0.17303524911403656,
              -0.11423205584287643,
              -0.1044362410902977,
              0.13534876704216003,
              0.15852317214012146,
              0.0012710600858554244,
              -0.017432525753974915,
              -0.15158651769161224,
              -0.3455345928668976,
              0.24767327308654785
            ],
            [
              -0.20156727731227875,
              -0.3561567962169647,
              0.24090585112571716,
              0.10852699726819992,
              -0.03384239226579666,
              -0.03574521094560623,
              0.10785675048828125,
              -0.36847808957099915,
              -0.16997985541820526,
              0.23670251667499542
            ],
            [
              -0.5177952647209167,
              -0.260538250207901,
              0.1308158040046692,
              0.1880268156528473,
              0.15536421537399292,
              -0.002913381904363632,
              -0.1668270230293274,
              0.36919206380844116,
              0.11860720813274384,
              0.2889745533466339
            ]
          ],
          [
            [
              -0.3592466115951538,
              -0.4617580473423004,
              0.022077223286032677,
              -0.021855918690562248,
              0.23037736117839813,
              0.18466699123382568,
              0.030689433217048645,
              -0.07649791240692139,
              0.1576698273420334,
              0.10230699181556702
            ],
            [
              -0.23014050722122192,
              -0.053235556930303574,
              0.21106567978858948,
              -0.1067141517996788,
              0.2781147062778473,
              0.08844061940908432,
              0.1779806911945343,
              0.15737266838550568,
              0.1521974354982376,
              -0.2555779814720154
            ],
            [
              -0.10794815421104431,
              -0.14695942401885986,
              0.15760329365730286,
              -0.441482812166214,
              0.29969364404678345,
              0.08205622434616089,
              -0.08837468922138214,
              0.1522265076637268,
              0.21127621829509735,
              -0.18734140694141388
            ]
          ]
        ]
      },
      {
        "bias": 0.04431891068816185,
        "weights": [
          [
            [
              0.39717015624046326,
              0.09453767538070679,
              -0.08531003445386887,
              0.4087209701538086,
              -0.2866428792476654,
              -0.48147112131118774,
              0.177799791097641,
              0.22757451236248016,
              -0.17886628210544586,
              0.10051985085010529
            ],
            [
              0.03687557578086853,
              0.0244517270475626,
              0.11861002445220947,
              0.48140040040016174,
              0.14253894984722137,
              -0.16211581230163574,
              -0.13084270060062408,
              0.07919429242610931,
              -0.43070149421691895,
              -0.16436734795570374
            ],
            [
              0.1950467973947525,
              0.0072946068830788136,
              -0.11518342792987823,
              -0.1124497577548027,
              -0.02720150537788868,
              -0.1337575912475586,
              0.16959524154663086,
              0.037081263959407806,
              -0.6249948143959045,
              0.13580389320850372
            ]
          ],
          [
            [
              -0.5546910762786865,
              -0.1596728265285492,
              0.044215064495801926,
              0.39013242721557617,
              0.18668721616268158,
              -0.25884366035461426,
              0.018860667943954468,
              -0.19615022838115692,
              -0.015486808493733406,
              -0.30690768361091614
            ],
            [
              -0.4343182444572449,
              0.2767432630062103,
              -0.01887170970439911,
              0.057707563042640686,
              -0.13350842893123627,
              0.07045645266771317,
              0.11030399799346924,
              0.08224411308765411,
              -0.09221950173377991,
              -0.32466769218444824
            ],
            [
              0.02350902371108532,
              0.027950605377554893,
              0.21026289463043213,
              -0.3557101786136627,
              0.12001711875200272,
              0.13635443150997162,
              0.008312791585922241,
              -0.06506432592868805,
              -0.12567807734012604,
              -0.014586229808628559
            ]
          ],
          [
            [
              0.2935962975025177,
              0.25199541449546814,
              -0.17790493369102478,
              -0.15856534242630005,
              -0.14030666649341583,
              -0.10353150218725204,
              -0.08518780022859573,
              0.037705354392528534,
              0.3912019729614258,
              -0.20105186104774475
            ],
            [
              0.06882230937480927,
              0.3611850440502167,
              -0.06122133508324623,
              -0.2136625349521637,
              -0.3143083155155182,
              -0.17695870995521545,
              -0.02057105302810669,
              0.05068652704358101,
              0.16929841041564941,
              -0.7139599323272705
            ],
            [
              0.09243422746658325,
              0.27385371923446655,
              -0.08040247112512589,
              -0.3588465750217438,
              0.1297556757926941,
              0.08034677058458328,
              0.13505613803863525,
              0.07882976531982422,
              0.15205974876880646,
              -0.05939866602420807
            ]
          ]
        ]
      },
      {
        "bias": 0.062212783843278885,
        "weights": [
          [
            [
              -0.3013288974761963,
              0.14406560361385345,
              -0.13565762341022491,
              -0.35171079635620117,
              -0.07192070037126541,
              -0.003256753087043762,
              -0.1717042326927185,
              0.09959915280342102,
              0.3712173104286194,
              -0.1310538649559021
            ],
            [
              -0.18866506218910217,
              0.27693527936935425,
              0.18012768030166626,
              0.0593397319316864,
              -0.20029789209365845,
              -0.08325344324111938,
              0.025595054030418396,
              0.05954798683524132,
              0.02933087944984436,
              -0.278036504983902
            ],
            [
              -0.3171576261520386,
              0.4898030459880829,
              0.2418239861726761,
              -0.06145630031824112,
              0.2114524394273758,
              -0.2412077635526657,
              -0.14944276213645935,
              0.12653641402721405,
              -0.25364407896995544,
              -0.054837822914123535
            ]
          ],
          [
            [
              0.04147746413946152,
              0.25643792748451233,
              0.11473076045513153,
              -0.23759514093399048,
              -0.2560822367668152,
              -0.0682142972946167,
              0.13378342986106873,
              -0.2095107138156891,
              -0.019091520458459854,
              -0.02400732785463333
            ],
            [
              0.01695527695119381,
              0.12867794930934906,
              0.023910079151391983,
              0.10096291452646255,
              -0.025938935577869415,
              -0.07214382290840149,
              -0.16335421800613403,
              -0.2128758430480957,
              -0.426179975271225,
              0.02198988012969494
            ],
            [
              -0.11831966042518616,
              0.1099337711930275,
              0.15444380044937134,
              0.22618761658668518,
              0.2917815148830414,
              -0.17938542366027832,
              -0.14718535542488098,
              0.024188395589590073,
              -0.3904550075531006,
              0.05006866902112961
            ]
          ],
          [
            [
              -0.18893614411354065,
              0.135502427816391,
              0.13067162036895752,
              0.2704993784427643,
              0.09693988412618637,
              -0.11286132037639618,
              -0.096303291618824,
              0.1749403476715088,
              -0.5174570679664612,
              -0.043008554726839066
            ],
            [
              -0.2161175012588501,
              0.2581174969673157,
              0.26621612906455994,
              0.290589302778244,
              0.290157675743103,
              0.009974346496164799,
              -0.12655943632125854,
              -0.038279734551906586,
              -0.6591067910194397,
              -0.14160369336605072
            ],
            [
              -0.08739133179187775,
              0.04249361529946327,
              0.27899593114852905,
              -0.0666646659374237,
              0.329209566116333,
              0.14135132730007172,
              -0.12143158912658691,
              0.10321323573589325,
              -0.5438030362129211,
              -0.11284556239843369
            ]
          ]
        ]
      },
      {
        "bias": -0.01180302444845438,
        "weights": [
          [
            [
              -0.03287366032600403,
              -0.2960908114910126,
              0.23083427548408508,
              0.037955909967422485,
              0.2361164540052414,
              -0.014546963386237621,
              0.13467997312545776,
              -0.010634939186275005,
              -0.4610016644001007,
              0.10049581527709961
            ],
            [
              0.161965474486351,
              -0.11986816674470901,
              0.07048122584819794,
              -0.08177772909402847,
              0.14197169244289398,
              0.05303347855806351,
              -0.11195465177297592,
              0.18712177872657776,
              0.11980908364057541,
              -0.1558418571949005
            ],
            [
              0.11679548770189285,
              -0.18710772693157196,
              -0.06327912211418152,
              -0.5832818150520325,
              0.05077201500535011,
              0.2108970433473587,
              0.006053715944290161,
              0.33070236444473267,
              0.2027430534362793,
              0.009155762381851673
            ]
          ],
          [
            [
              0.1132533848285675,
              -0.09025158733129501,
              -0.0563063882291317,
              -0.39845436811447144,
              0.21819789707660675,
              0.295558899641037,
              -0.0990246906876564,
              -0.042241618037223816,
              -0.135300874710083,
              -0.3274887204170227
            ],
            [
              0.07704011350870132,
              0.24986247718334198,
              -0.12345542758703232,
              -0.3162204623222351,
              0.13210555911064148,
              0.1011912077665329,
              -0.029783248901367188,
              -0.03853721544146538,
              0.2380041629076004,
              -0.3089532256126404
            ],
            [
              0.23644781112670898,
              0.07375229150056839,
              -0.15754655003547668,
              -0.5168154835700989,
              -0.25663816928863525,
              0.12265514582395554,
              -0.1106390729546547,
              -0.19570845365524292,
              -0.054713692516088486,
              -0.4921920895576477
            ]
          ],
          [
            [
              0.5510696768760681,
              0.004645664244890213,
              -0.21829281747341156,
              -0.38763338327407837,
              -0.06837313622236252,
              0.32578641176223755,
              -0.031180143356323242,
              -0.19966229796409607,
              0.13222816586494446,
              -0.5106762647628784
            ],
            [
              0.329576700925827,
              0.39198067784309387,
              -0.20902703702449799,
              -0.07352064549922943,
              -0.0887262225151062,
              0.0693974643945694,
              0.11821231245994568,
              -0.2494957149028778,
              0.27388399839401245,
              -0.3329230546951294
            ],
            [
              0.1413343846797943,
              0.17258603870868683,
              -0.3802192807197571,
              0.09478393197059631,
              -0.24613019824028015,
              0.058737169951200485,
              0.15095096826553345,
              -0.20659339427947998,
              -0.18851274251937866,
              0.1980426162481308
            ]
          ]
        ]
      },
      {
        "bias": 0.11455362290143967,
        "weights": [
          [
            [
              0.11083097755908966,
              0.05581618472933769,
              0.12007226049900055,
              0.06382070481777191,
              0.12348083406686783,
              0.20521987974643707,
              -0.013346627354621887,
              0.11064381152391434,
              -0.18528759479522705,
              -0.03990262374281883
            ],
            [
              -0.08544192463159561,
              0.2558371424674988,
              -0.08231858164072037,
              0.1187836155295372,
              0.18957656621932983,
              -0.10413772612810135,
              0.023067966103553772,
              0.2593773901462555,
              -0.13872350752353668,
              -0.26380181312561035
            ],
            [
              0.11025506258010864,
              -0.1159142479300499,
              -0.11814525723457336,
              -0.0549028106033802,
              -0.10456837713718414,
              -0.24490225315093994,
              0.06022021174430847,
              0.1522573083639145,
              -0.04639816656708717,
              -0.3651030361652374
            ]
          ],
          [
            [
              0.0212502833455801,
              0.11752843856811523,
              0.18748871982097626,
              0.07940930873155594,
              0.04113636165857315,
              -0.07399474829435349,
              -0.16755378246307373,
              0.18340812623500824,
              -0.2622954845428467,
              -0.41859880089759827
            ],
            [
              0.1624455600976944,
              -0.04524824023246765,
              -0.10777502506971359,
              -0.2474861592054367,
              0.0714242085814476,
              0.28932318091392517,
              0.15281331539154053,
              0.15044164657592773,
              -0.4091828465461731,
              -0.21836118400096893
            ],
            [
              0.34388425946235657,
              -0.6278831362724304,
              0.11816897988319397,
              0.1823297142982483,
              -0.10667724162340164,
              0.16545002162456512,
              0.06193791329860687,
              -0.238356813788414,
              -0.4695241153240204,
              -0.13407155871391296
            ]
          ],
          [
            [
              -0.145499587059021,
              0.044305261224508286,
              -0.04131634905934334,
              -0.5495843291282654,
              -0.2399367094039917,
              -0.024821843951940536,
              0.07593095302581787,
              0.043021831661462784,
              0.025242527946829796,
              -0.3419521450996399
            ],
            [
              0.048926301300525665,
              0.301435261964798,
              0.2924611270427704,
              -0.3339853584766388,
              0.16861630976200104,
              0.29615095257759094,
              -0.0006051808595657349,
              -0.06731486320495605,
              -0.07044213265180588,
              -0.1659470498561859
            ],
            [
              -0.043374575674533844,
              -0.03364075347781181,
              0.2934139668941498,
              -0.39343807101249695,
              0.03964405879378319,
              0.09699958562850952,
              -0.17880238592624664,
              0.07105366885662079,
              -0.2944910228252411,
              0.12664826214313507
            ]
          ]
        ]
      },
      {
        "bias": 0.054261453449726105,
        "weights": [
          [
            [
              0.22755958139896393,
              -0.0425688661634922,
              -0.155889093875885,
              0.21222560107707977,
              -0.18606477975845337,
              -0.28569939732551575,
              -0.1443893015384674,
              0.3657565414905548,
              -0.02991381660103798,
              -0.39913463592529297
            ],
            [
              -0.0673578605055809,
              -0.01722702942788601,
              0.3211301267147064,
              -0.060804009437561035,
              -0.1066293939948082,
              -0.06326834857463837,
              -0.07098865509033203,
              0.26939669251441956,
              0.1583503782749176,
              -0.5625381469726562
            ],
            [
              -0.36097246408462524,
              -0.060175005346536636,
              0.28241971135139465,
              -0.07449483126401901,
              -0.00705771055072546,
              0.09328851848840714,
              0.15031886100769043,
              0.27299731969833374,
              0.03615470603108406,
              -0.266035795211792
            ]
          ],
          [
            [
              0.3051917254924774,
              -0.4206657111644745,
              -0.32086560130119324,
              0.34775063395500183,
              -0.04535176232457161,
              0.2786751389503479,
              0.17169013619422913,
              -0.2317567616701126,
              -0.3252192437648773,
              -0.043525975197553635
            ],
            [
              0.1538519412279129,
              -0.25098058581352234,
              -0.14845886826515198,
              0.15906541049480438,
              -0.17735272645950317,
              -0.14839918911457062,
              -0.013567402958869934,
              0.05044417828321457,
              -0.3544875383377075,
              -0.17184248566627502
            ],
            [
              -0.01719634234905243,
              -0.27161625027656555,
              -0.07027001678943634,
              0.008526897989213467,
              -0.24690212309360504,
              -0.602069079875946,
              -0.09000829607248306,
              0.27152541279792786,
              -0.04499748721718788,
              -0.224137544631958
            ]
          ],
          [
            [
              0.2997083365917206,
              -0.2793152928352356,
              0.12324761599302292,
              -0.11310319602489471,
              0.3608768582344055,
              0.46173685789108276,
              -0.11458707600831985,
              -0.5428828001022339,
              -0.33890196681022644,
              0.19959093630313873
            ],
            [
              -0.05784761160612106,
              -0.3904280662536621,
              -0.02284178137779236,
              0.3728448450565338,
              0.15331608057022095,
              0.17331218719482422,
              0.14270120859146118,
              -0.3397164046764374,
              -0.3518262505531311,
              0.12315744906663895
            ],
            [
              0.15828093886375427,
              -0.2673271894454956,
              -0.05609555542469025,
              0.2728685736656189,
              0.07100047171115875,
              -0.3506917655467987,
              0.1147255003452301,
              -0.07938221096992493,
              -0.36872804164886475,
              0.18516263365745544
            ]
          ]
        ]
      }
    ]
  },
  {
    "name": "relu_1_2",
    "input_shape": [
      24,
      24,
      10
    ],
    "output_shape": [
      24,
      24,
      10
    ],
    "num_neurons": 10
  },
  {
    "name": "max_pool_1",
    "input_shape": [
      24,
      24,
      10
    ],
    "output_shape": [
      12,
      12,
      10
    ],
    "num_neurons": 10
  },
  {
    "name": "conv_2_1",
    "input_shape": [
      12,
      12,
      10
    ],
    "output_shape": [
      10,
      10,
      20
    ],
    "num_neurons": 20,
    "weights": [
      {
        "bias": -0.0025142687372863293,
        "weights": [
          [
            [
              0.2833368182182312,
              -0.4041881263256073,
              -0.23660771548748016,
              -0.2983962893486023,
              0.19049683213233948,
              0.08393549919128418,
              0.08102362602949142,
              -0.4225824773311615,
              -0.37539437413215637,
              0.11548550426959991
            ],
            [
              -0.2488531619310379,
              -0.03964242711663246,
              0.08228561282157898,
              0.22514019906520844,
              0.13350637257099152,
              0.2605974078178406,
              0.05582079663872719,
              0.09571762382984161,
              -0.09421702474355698,
              -0.23344816267490387
            ],
            [
              -0.15047024190425873,
              -0.2755146920681,
              0.13777698576450348,
              -0.05658562481403351,
              -0.0464639738202095,
              0.08339763432741165,
              -0.22721730172634125,
              0.21961572766304016,
              -0.020008046180009842,
              -0.17038705945014954
            ]
          ],
          [
            [
              -0.08605864644050598,
              0.04169876128435135,
              0.005810596980154514,
              -0.030719581991434097,
              0.33598777651786804,
              0.026441354304552078,
              -0.039678484201431274,
              0.1336856484413147,
              0.07267073541879654,
              -0.4261316955089569
            ],
            [
              0.013045460917055607,
              -0.07092347741127014,
              0.004846558906137943,
              -0.13577353954315186,
              -0.12370964139699936,
              0.14430619776248932,
              -0.17939725518226624,
              -0.09636633098125458,
              0.18290749192237854,
              -0.0988684594631195
            ],
            [
              -0.0920957550406456,
              -0.22742094099521637,
              -0.01708631031215191,
              -0.06648046523332596,
              -0.21705971658229828,
              -0.07092349231243134,
              -0.007632683031260967,
              0.016268985345959663,
              -0.15272879600524902,
              0.027480991557240486
            ]
          ],
          [
            [
              0.15761592984199524,
              0.16747193038463593,
              -0.013738449662923813,
              0.3489764928817749,
              -0.09291066229343414,
              0.31387388706207275,
              -0.18332439661026,
              0.2007288634777069,
              0.15658190846443176,
              0.01878046989440918
            ],
            [
              -0.03821110352873802,
              0.10714857280254364,
              -0.07801131159067154,
              0.18909792602062225,
              -0.0846489816904068,
              0.2794167101383209,
              -0.2631371319293976,
              -0.04810860753059387,
              0.2445710003376007,
              0.3352327346801758
            ],
            [
              0.35631853342056274,
              -0.07344841957092285,
              -0.24427594244480133,
              0.2021852731704712,
              0.10708498954772949,
              -0.030803853645920753,
              -0.044470977038145065,
              -0.19167044758796692,
              0.10522764176130295,
              0.4459288716316223
            ]
          ]
        ]
      },
      {
        "bias": 0.14625121653079987,
        "weights": [
          [
            [
              0.06647161394357681,
              0.12010876089334488,
              0.13621535897254944,
              0.04754983261227608,
              -0.028198152780532837,
              0.3256070911884308,
              -0.39940690994262695,
              0.32066842913627625,
              0.18451425433158875,
              0.0719427838921547
            ],
            [
              -0.392495334148407,
              0.10439611971378326,
              0.10039502382278442,
              0.058533236384391785,
              -0.30186912417411804,
              -0.1112225204706192,
              -0.18342073261737823,
              0.013515426777303219,
              -0.04757159203290939,
              -0.25312545895576477
            ],
            [
              -0.1495361477136612,
              -0.202601820230484,
              -0.1357257068157196,
              -0.1404295712709427,
              -0.2965485751628876,
              -0.11964607238769531,
              -0.011565164662897587,
              0.08752012252807617,
              -0.21269109845161438,
              -0.21480856835842133
            ]
          ],
          [
            [
              -0.1871768832206726,
              -0.272871196269989,
              -0.2325352430343628,
              -0.19016332924365997,
              -0.4276971220970154,
              -0.4611247777938843,
              0.0972711443901062,
              0.17598678171634674,
              -0.4346579611301422,
              -0.2803945243358612
            ],
            [
              -0.13495492935180664,
              -0.4254314601421356,
              -0.15633423626422882,
              -0.32950472831726074,
              0.06180613487958908,
              -0.13942812383174896,
              0.2970842719078064,
              -0.14004601538181305,
              -0.2719166576862335,
              -0.315012127161026
            ],
            [
              0.14094242453575134,
              -0.13465441763401031,
              0.08508538454771042,
              0.017376240342855453,
              0.11405326426029205,
              -0.0961693823337555,
              0.2286849468946457,
              0.2175491452217102,
              -0.021382886916399002,
              -0.20593763887882233
            ]
          ],
          [
            [
              0.026683352887630463,
              -0.2923826575279236,
              0.15145187079906464,
              -0.3774169981479645,
              0.1439502239227295,
              -0.08859521150588989,
              0.20782434940338135,
              -0.2142399698495865,
              -0.29408660531044006,
              -0.26336225867271423
            ],
            [
              -0.05596022680401802,
              -0.2431757003068924,
              0.10011512041091919,
              0.1911250650882721,
              0.26437655091285706,
              0.029283665120601654,
              0.263925164937973,
              0.1114618256688118,
              0.07699721306562424,
              -0.32678091526031494
            ],
            [
              0.1548454612493515,
              -0.06128939613699913,
              0.050971806049346924,
              0.10076937824487686,
              0.3518442213535309,
              0.23994940519332886,
              0.16499623656272888,
              0.18039295077323914,
              0.39711815118789673,
              -0.12292599678039551
            ]
          ]
        ]
      },
      {
        "bias": 0.03424482420086861,
        "weights": [
          [
            [
              -0.06683462858200073,
              0.21607418358325958,
              0.22350715100765228,
              -0.12541711330413818,
              0.09598161280155182,
              -0.1643826812505722,
              0.24164201319217682,
              -0.30507999658584595,
              0.23955194652080536,
              0.052670739591121674
            ],
            [
              -0.10562998801469803,
              0.16069656610488892,
              -0.011835670098662376,
              -0.02906428463757038,
              0.11252404749393463,
              0.28689348697662354,
              0.3229340612888336,
              0.003967511001974344,
              0.05688008293509483,
              -0.12732620537281036
            ],
            [
              -0.07675157487392426,
              0.06781642138957977,
              0.28762954473495483,
              0.3397541642189026,
              0.20714722573757172,
              0.4711843729019165,
              0.09857555478811264,
              0.10620013624429703,
              0.028955264016985893,
              -0.25832387804985046
            ]
          ],
          [
            [
              0.030440596863627434,
              -0.1272202581167221,
              0.11366095393896103,
              0.22929416596889496,
              0.2768527865409851,
              0.21077731251716614,
              0.20333480834960938,
              0.06129354238510132,
              0.09440356492996216,
              -0.38505393266677856
            ],
            [
              0.03359723836183548,
              -0.14137446880340576,
              0.08632679283618927,
              0.2322215586900711,
              -0.09006328135728836,
              0.2541793882846832,
              -0.25003793835639954,
              0.25294962525367737,
              0.16063357889652252,
              -0.08926308900117874
            ],
            [
              -0.1762179285287857,
              0.005648226477205753,
              0.10595793277025223,
              0.18648307025432587,
              -0.27049586176872253,
              -0.013396021910011768,
              -0.33750978112220764,
              0.35201379656791687,
              -0.08692625910043716,
              0.13034602999687195
            ]
          ],
          [
            [
              -0.19145755469799042,
              0.009904369711875916,
              0.022513926029205322,
              0.04677671566605568,
              -0.15337155759334564,
              0.2338659167289734,
              -0.3311409056186676,
              0.26947373151779175,
              0.14615771174430847,
              0.14498843252658844
            ],
            [
              -0.0271737240254879,
              -0.15931807458400726,
              -0.2336452305316925,
              0.026072001084685326,
              -0.28249675035476685,
              -0.20415811240673065,
              -0.321700781583786,
              0.010753443464636803,
              -0.16886086761951447,
              0.36620667576789856
            ],
            [
              -0.023086942732334137,
              0.20974476635456085,
              -0.11450651288032532,
              -0.20523551106452942,
              -0.43914660811424255,
              -0.1336810141801834,
              -0.25191107392311096,
              -0.2790714502334595,
              -0.12360862642526627,
              0.09892217069864273
            ]
          ]
        ]
      },
      {
        "bias": 0.25536027550697327,
        "weights": [
          [
            [
              0.12892666459083557,
              0.1671447455883026,
              -0.19624149799346924,
              -0.10886190086603165,
              -0.21545656025409698,
              -0.16899724304676056,
              -0.16879664361476898,
              -0.14557500183582306,
              -0.14560654759407043,
              0.25524869561195374
            ],
            [
              -0.06466399133205414,
              -0.0913705974817276,
              0.0013606582069769502,
              -0.04687400534749031,
              -0.027777232229709625,
              0.1315118670463562,
              -0.0687122568488121,
              -0.0767240971326828,
              -0.046642620116472244,
              0.1836678385734558
            ],
            [
              -0.050307173281908035,
              0.20231923460960388,
              0.23688063025474548,
              -0.13916218280792236,
              0.15230506658554077,
              0.0978180319070816,
              0.22583012282848358,
              -0.18528033792972565,
              0.3487522006034851,
              -0.03013620898127556
            ]
          ],
          [
            [
              0.35006630420684814,
              0.10730451345443726,
              -0.3191395401954651,
              -0.08718661963939667,
              -0.23166781663894653,
              -0.012558536604046822,
              -0.371109277009964,
              -0.11234041303396225,
              -0.28899267315864563,
              0.12479973584413528
            ],
            [
              -0.04909254610538483,
              -0.17174306511878967,
              -0.16337405145168304,
              0.13247744739055634,
              -0.054467059671878815,
              -0.047134317457675934,
              0.15326803922653198,
              -0.12717653810977936,
              -0.10898217558860779,
              0.007151019759476185
            ],
            [
              0.13803571462631226,
              0.027576500549912453,
              0.1532841920852661,
              0.1674254983663559,
              0.2805590033531189,
              0.30924466252326965,
              0.41351479291915894,
              -0.011950893327593803,
              0.30257734656333923,
              -0.10115136206150055
            ]
          ],
          [
            [
              0.08154859393835068,
              -0.025460135191679,
              -0.19906271994113922,
              -0.13196559250354767,
              -0.20099833607673645,
              -0.32461079955101013,
              -0.5687852501869202,
              0.053030550479888916,
              -0.16771027445793152,
              0.3611987233161926
            ],
            [
              -0.17518894374370575,
              -0.46554994583129883,
              -0.23475755751132965,
              -0.05267425253987312,
              -0.1695738285779953,
              0.052621956914663315,
              -0.19834688305854797,
              -0.17590169608592987,
              -0.15395960211753845,
              0.38003042340278625
            ],
            [
              -0.15778449177742004,
              0.11654918640851974,
              0.25430744886398315,
              0.11658065766096115,
              -0.06257808208465576,
              0.2588898539543152,
              -0.0017083612037822604,
              -0.022662527859210968,
              0.08978359401226044,
              0.23996391892433167
            ]
          ]
        ]
      },
      {
        "bias": 0.002439765725284815,
        "weights": [
          [
            [
              -0.18535567820072174,
              -0.19539014995098114,
              -0.2245572805404663,
              -0.26403266191482544,
              0.09072499722242355,
              0.06480669975280762,
              0.1891162246465683,
              -0.24092267453670502,
              -0.052956726402044296,
              0.041728049516677856
            ],
            [
              0.044680848717689514,
              -0.24444380402565002,
              -0.1336785852909088,
              -0.1843256950378418,
              -0.04448794946074486,
              0.16804736852645874,
              0.06197785213589668,
              -0.2817257046699524,
              0.04350711777806282,
              0.10779359191656113
            ],
            [
              0.05186542496085167,
              -0.19385762512683868,
              -0.020070958882570267,
              -0.062361299991607666,
              -0.04602837562561035,
              -0.1075374037027359,
              -0.019549008458852768,
              -0.05641572177410126,
              -0.05567310377955437,
              0.10957957804203033
            ]
          ],
          [
            [
              0.3302263617515564,
              -0.16053883731365204,
              -0.12992599606513977,
              -0.0037490185350179672,
              0.07834106683731079,
              0.34105581045150757,
              -0.05879319831728935,
              -0.1777045577764511,
              0.04713093116879463,
              0.48245230317115784
            ],
            [
              0.13673050701618195,
              0.012288958765566349,
              0.20591403543949127,
              -0.055149439722299576,
              -0.12002023309469223,
              0.11680092662572861,
              -0.14007605612277985,
              -0.27443554997444153,
              0.16795775294303894,
              0.42461276054382324
            ],
            [
              0.07291103899478912,
              0.2929508090019226,
              0.17029054462909698,
              0.0009685626137070358,
              0.04360293969511986,
              -0.13739381730556488,
              -0.10486797243356705,
              -0.2553133964538574,
              0.23124182224273682,
              0.17930646240711212
            ]
          ],
          [
            [
              0.05092795938253403,
              -0.10977274179458618,
              -0.28205406665802,
              0.1061539426445961,
              -0.18972550332546234,
              0.31658685207366943,
              -0.12934017181396484,
              -0.1496860831975937,
              -0.2081509381532669,
              0.061599068343639374
            ],
            [
              0.08337046951055527,
              -0.13734059035778046,
              0.10581237077713013,
              0.03000469133257866,
              -0.13504697382450104,
              0.18823648989200592,
              0.015869809314608574,
              -0.20392994582653046,
              0.10531973093748093,
              0.300364226102829
            ],
            [
              0.12432225048542023,
              0.05396505817770958,
              0.19267280399799347,
              -0.08886752277612686,
              0.18130436539649963,
              0.02620651014149189,
              0.20612387359142303,
              -0.15230563282966614,
              -0.04447806626558304,
              0.079560287296772
            ]
          ]
        ]
      },
      {
        "bias": -0.08932286500930786,
        "weights": [
          [
            [
              0.030777860432863235,
              -0.17830446362495422,
              -0.1562606394290924,
              -0.25789448618888855,
              -0.04400186985731125,
              0.006240604445338249,
              0.16506659984588623,
              -0.18395304679870605,
              -0.3024229109287262,
              0.014853468164801598
            ],
            [
              -0.1608559638261795,
              -0.08473964780569077,
              -0.01645313948392868,
              -0.2515079379081726,
              -0.10082131624221802,
              0.12154662609100342,
              0.11746230721473694,
              0.02318664640188217,
              -0.07337551563978195,
              -0.07143534719944
            ],
            [
              -0.17896489799022675,
              -0.03055124171078205,
              -0.08692233264446259,
              0.13681961596012115,
              0.05415618047118187,
              -0.023507636040449142,
              -0.09016615897417068,
              0.08138158172369003,
              -0.07047666609287262,
              -0.08463854342699051
            ]
          ],
          [
            [
              0.15752822160720825,
              -0.09041742235422134,
              0.16423094272613525,
              -0.3282751142978668,
              0.16528873145580292,
              -0.20241577923297882,
              0.1754293441772461,
              0.07103656232357025,
              0.03640292212367058,
              -0.15676073729991913
            ],
            [
              0.0665988102555275,
              -0.1346188187599182,
              -0.026220787316560745,
              -0.2531849145889282,
              0.06403441727161407,
              0.09517872333526611,
              0.0637371689081192,
              0.13107647001743317,
              0.044772833585739136,
              -0.2573639452457428
            ],
            [
              0.04838978871703148,
              0.11986801773309708,
              -0.14398761093616486,
              -0.09800399839878082,
              0.04216296598315239,
              0.0509757436811924,
              -0.03332711383700371,
              0.13475316762924194,
              -0.10217278450727463,
              0.07110442221164703
            ]
          ],
          [
            [
              0.038527823984622955,
              0.2884226143360138,
              0.029239347204566002,
              -0.029529601335525513,
              -0.005682192277163267,
              0.1123606339097023,
              0.0534655936062336,
              0.03384055569767952,
              0.4038658142089844,
              0.03715190663933754
            ],
            [
              0.14122933149337769,
              0.10710940510034561,
              0.2022915631532669,
              -0.23059126734733582,
              0.17673516273498535,
              0.009203393943607807,
              0.005386646371334791,
              -0.1546775847673416,
              0.16687923669815063,
              0.24593432247638702
            ],
            [
              0.30828434228897095,
              0.1830665022134781,
              0.11035838723182678,
              -0.11974024772644043,
              0.1575557440519333,
              -0.10267119109630585,
              -0.14496982097625732,
              0.07095316797494888,
              0.008035903796553612,
              0.11796604841947556
            ]
          ]
        ]
      },
      {
        "bias": -0.019626948982477188,
        "weights": [
          [
            [
              -0.21850258111953735,
              0.3353240489959717,
              0.11689586192369461,
              -0.04399914667010307,
              -0.15971015393733978,
              0.25532597303390503,
              -0.026157567277550697,
              0.20696872472763062,
              0.22192101180553436,
              -0.40783220529556274
            ],
            [
              -0.12373027950525284,
              0.2298777550458908,
              0.04652079567313194,
              0.038849297910928726,
              0.037061065435409546,
              -0.037619538605213165,
              0.16854704916477203,
              0.14431025087833405,
              -0.025823984295129776,
              -0.4504208266735077
            ],
            [
              -0.0961741954088211,
              0.08034315705299377,
              0.09506222605705261,
              0.11171513050794601,
              0.057678863406181335,
              -0.12173516303300858,
              -0.19637998938560486,
              0.18185372650623322,
              -0.11400766670703888,
              -0.14202909171581268
            ]
          ],
          [
            [
              -0.009395245462656021,
              0.11492889374494553,
              0.12023095041513443,
              0.004524892661720514,
              -0.13922420144081116,
              0.09571670740842819,
              -0.20033085346221924,
              0.1300019919872284,
              0.1774800568819046,
              -0.3025210201740265
            ],
            [
              0.1484624743461609,
              -0.040945593267679214,
              -0.08654224127531052,
              0.2086605280637741,
              -0.12556830048561096,
              -0.02012278512120247,
              -0.12132108956575394,
              0.16588829457759857,
              -0.011756324209272861,
              -0.011887085624039173
            ],
            [
              0.19566279649734497,
              -0.1303151249885559,
              -0.1863497942686081,
              0.0090743163600564,
              -0.06346746534109116,
              -0.30775371193885803,
              -0.16669075191020966,
              0.06526520848274231,
              -0.06949705630540848,
              0.005929841659963131
            ]
          ],
          [
            [
              0.18317273259162903,
              0.04172828420996666,
              -0.07140206545591354,
              0.05132414400577545,
              -0.43877333402633667,
              -0.02852596715092659,
              -0.08116117119789124,
              -0.36063051223754883,
              0.09088100492954254,
              -0.07660993188619614
            ],
            [
              0.24449338018894196,
              0.0018179981270805001,
              -0.10300080478191376,
              0.1029803678393364,
              -0.0667121484875679,
              0.2140617072582245,
              -0.0586719810962677,
              -0.27622902393341064,
              0.022614112123847008,
              -0.043185703456401825
            ],
            [
              0.3008298873901367,
              0.027988575398921967,
              -0.11020081490278244,
              -0.17885880172252655,
              0.18432743847370148,
              -0.32124969363212585,
              0.010817891918122768,
              -0.19748157262802124,
              0.17912352085113525,
              0.1624809056520462
            ]
          ]
        ]
      },
      {
        "bias": -0.037721700966358185,
        "weights": [
          [
            [
              0.007108763325959444,
              0.12170928716659546,
              0.04135769233107567,
              0.016704291105270386,
              0.016215551644563675,
              0.12302719056606293,
              -0.07270508259534836,
              -0.02635667473077774,
              0.26997485756874084,
              -0.31955257058143616
            ],
            [
              -0.03332481533288956,
              -0.08550675213336945,
              0.06844915449619293,
              -0.10736376792192459,
              0.006490375846624374,
              -0.23691928386688232,
              -0.0007744000758975744,
              -0.13965244591236115,
              0.0742974579334259,
              0.014850353822112083
            ],
            [
              0.17487891018390656,
              0.018709436058998108,
              -0.08774123340845108,
              -0.07834848761558533,
              0.024052804335951805,
              0.05635335296392441,
              0.2027667760848999,
              -0.21527749300003052,
              0.15620195865631104,
              -0.08124053478240967
            ]
          ],
          [
            [
              -0.23883305490016937,
              -0.13659730553627014,
              -0.0863121971487999,
              0.17371970415115356,
              -0.17270928621292114,
              0.053118132054805756,
              0.023626357316970825,
              -0.18412546813488007,
              -0.14888042211532593,
              0.22065912187099457
            ],
            [
              -0.008934048935770988,
              0.06529392302036285,
              0.1019117459654808,
              0.24292351305484772,
              -0.058102935552597046,
              0.09177915006875992,
              -0.267878919839859,
              -0.16672685742378235,
              0.07503392547369003,
              -0.08715538680553436
            ],
            [
              -0.07854512333869934,
              0.18799009919166565,
              0.17238585650920868,
              0.12615056335926056,
              -0.14821738004684448,
              0.05071885883808136,
              0.0011164426105096936,
              0.13259059190750122,
              0.17897078394889832,
              -0.1407242864370346
            ]
          ],
          [
            [
              -0.21761967241764069,
              -0.10607554018497467,
              -0.2863917648792267,
              -0.17296995222568512,
              -0.12553641200065613,
              -0.09762302786111832,
              -0.09598861634731293,
              -0.04598722979426384,
              -0.05975840613245964,
              0.20816422998905182
            ],
            [
              -0.14504462480545044,
              -0.14886823296546936,
              -0.03483942896127701,
              0.03580169752240181,
              0.03668229281902313,
              -0.006492793094366789,
              0.06787708401679993,
              -0.1969088464975357,
              -0.026927385479211807,
              0.21434234082698822
            ],
            [
              -0.010321044363081455,
              0.09456760436296463,
              0.11272931843996048,
              -0.1825394183397293,
              -0.20816999673843384,
              0.09266211837530136,
              -0.017451956868171692,
              0.15785041451454163,
              0.07025403529405594,
              -0.043361321091651917
            ]
          ]
        ]
      },
      {
        "bias": -0.028271613642573357,
        "weights": [
          [
            [
              -0.44447436928749084,
              -0.13715195655822754,
              -0.033699940890073776,
              0.011635386385023594,
              -0.11691697686910629,
              -0.01865493878722191,
              0.11621258407831192,
              -0.02152027189731598,
              -0.00941530428826809,
              -0.32388734817504883
            ],
            [
              -0.10034967958927155,
              0.345838725566864,
              0.18698494136333466,
              0.023659270256757736,
              -0.16353003680706024,
              -0.07710058242082596,
              0.055682770907878876,
              0.09557022899389267,
              0.14177682995796204,
              -0.21270164847373962
            ],
            [
              0.07424168288707733,
              -0.006621597334742546,
              0.1295357048511505,
              -0.25066670775413513,
              -0.41831132769584656,
              -0.25285330414772034,
              -0.45193716883659363,
              0.01927690953016281,
              0.09357043355703354,
              -0.11047360301017761
            ]
          ],
          [
            [
              -0.28035005927085876,
              -0.17377278208732605,
              0.1067124605178833,
              -0.08498697727918625,
              0.07104581594467163,
              0.17394743859767914,
              0.2627145051956177,
              -0.01266851183027029,
              0.027978455647826195,
              -0.4668188691139221
            ],
            [
              -0.2172071784734726,
              0.2006186544895172,
              0.22962228953838348,
              0.1363304853439331,
              -0.21450269222259521,
              0.2635411024093628,
              0.12201151996850967,
              0.2580282390117645,
              -0.042843375355005264,
              -0.327873557806015
            ],
            [
              -0.2244175225496292,
              0.0843982845544815,
              -0.058218710124492645,
              -0.2315184324979782,
              -0.30606651306152344,
              -0.2557975649833679,
              -0.4482748806476593,
              0.25243091583251953,
              -0.19889149069786072,
              -0.3199889063835144
            ]
          ],
          [
            [
              -0.320266455411911,
              -0.11367882788181305,
              -0.0980914980173111,
              -0.06758046895265579,
              -0.078953318297863,
              0.25833243131637573,
              0.12407338619232178,
              0.16558320820331573,
              0.08763408660888672,
              -0.17001976072788239
            ],
            [
              -0.0325213186442852,
              0.17389219999313354,
              0.18608206510543823,
              -0.06050615757703781,
              -0.134380042552948,
              0.07224420458078384,
              -0.12361374497413635,
              0.30582714080810547,
              0.08347752690315247,
              -0.07717563211917877
            ],
            [
              0.05743385851383209,
              0.1021023765206337,
              -0.07518508285284042,
              -0.04998314008116722,
              0.018519388511776924,
              -0.10131995379924774,
              0.03673245757818222,
              -0.030303290113806725,
              -0.14084410667419434,
              -0.1989356279373169
            ]
          ]
        ]
      },
      {
        "bias": 0.07385934144258499,
        "weights": [
          [
            [
              -0.055018965154886246,
              -0.2700082063674927,
              0.047310031950473785,
              0.061596017330884933,
              -0.10966856777667999,
              -0.3306061923503876,
              -0.12205135077238083,
              -0.09077282249927521,
              -0.07851206511259079,
              0.24199271202087402
            ],
            [
              -0.11776590347290039,
              -0.1574646681547165,
              -0.1640329658985138,
              0.22473138570785522,
              0.035952795296907425,
              0.008731208741664886,
              -0.019935010001063347,
              -0.02371412329375744,
              -0.10688848048448563,
              -0.10413594543933868
            ],
            [
              0.24099811911582947,
              0.3022100031375885,
              0.25987106561660767,
              -0.061158716678619385,
              0.20072871446609497,
              0.1644977182149887,
              -0.14875881373882294,
              0.10047304630279541,
              0.14145447313785553,
              0.1121191754937172
            ]
          ],
          [
            [
              0.054457616060972214,
              0.22582532465457916,
              -0.13704201579093933,
              -0.2927892804145813,
              -0.06406185030937195,
              -0.04830296337604523,
              -0.2000511735677719,
              0.1044917032122612,
              0.17304039001464844,
              0.13576649129390717
            ],
            [
              -0.3459189832210541,
              -0.32847365736961365,
              -0.2660278379917145,
              -0.06964724510908127,
              -0.0915897786617279,
              -0.23534874618053436,
              -0.0050697061233222485,
              -0.15693563222885132,
              -0.03282395005226135,
              0.42930302023887634
            ],
            [
              -0.5966862440109253,
              -0.010542076081037521,
              -0.05351933091878891,
              -0.07193198800086975,
              -0.258112370967865,
              -0.03561018407344818,
              0.12062203884124756,
              -0.16984981298446655,
              -0.0887518897652626,
              0.07981620728969574
            ]
          ],
          [
            [
              0.08108426630496979,
              0.40924182534217834,
              0.21917922794818878,
              -0.08972998708486557,
              0.05893456190824509,
              0.3756048083305359,
              0.21886324882507324,
              -0.003654190106317401,
              0.30072736740112305,
              0.2696327865123749
            ],
            [
              0.2879730463027954,
              -0.11979691684246063,
              -0.06235264614224434,
              -0.06809565424919128,
              0.3226798176765442,
              0.10384724289178848,
              0.23196299374103546,
              -0.17862963676452637,
              0.11257734149694443,
              0.3445971608161926
            ],
            [
              -0.039702173322439194,
              -0.04150444641709328,
              0.14553457498550415,
              -0.1570185422897339,
              -0.0039944127202034,
              0.04514607414603233,
              0.07062473148107529,
              0.024686476215720177,
              -0.03385758027434349,
              0.12315555661916733
            ]
          ]
        ]
      },
      {
        "bias": -0.039847590029239655,
        "weights": [
          [
            [
              0.20694424211978912,
              0.1221451535820961,
              0.24041301012039185,
              -0.019035883247852325,
              0.19305145740509033,
              -0.02322053164243698,
              -0.031767573207616806,
              0.06332119554281235,
              0.3051683008670807,
              0.03348734974861145
            ],
            [
              0.13945698738098145,
              0.12675562500953674,
              0.10757545381784439,
              -0.15708580613136292,
              0.11293287575244904,
              -0.12405450642108917,
              -0.011751366779208183,
              0.15349657833576202,
              0.12367291003465652,
              -0.05638720095157623
            ],
            [
              -0.03723979741334915,
              -0.26951903104782104,
              0.03316499665379524,
              -0.3566667437553406,
              -0.05381938815116882,
              -0.22514934837818146,
              0.06118321418762207,
              -0.2381390482187271,
              -0.019848830997943878,
              -0.16693677008152008
            ]
          ],
          [
            [
              -0.1975790411233902,
              0.049760669469833374,
              0.09720034152269363,
              0.10218067467212677,
              -0.1556948721408844,
              0.09785908460617065,
              0.04841900244355202,
              0.18175941705703735,
              0.16715413331985474,
              0.32742488384246826
            ],
            [
              -0.03754011541604996,
              0.04445823282003403,
              0.097336545586586,
              0.109743133187294,
              0.03965454548597336,
              -0.2809200584888458,
              -0.1863972246646881,
              0.0940520390868187,
              -0.08224381506443024,
              0.15495316684246063
            ],
            [
              0.034718818962574005,
              -0.051768239587545395,
              -0.18071329593658447,
              -0.07042036205530167,
              0.2357916533946991,
              -0.38666343688964844,
              0.08555242419242859,
              -0.16038905084133148,
              -0.13354511559009552,
              -0.11194604635238647
            ]
          ],
          [
            [
              -0.25799399614334106,
              -0.19393080472946167,
              -0.2939128279685974,
              0.08570943772792816,
              0.08301784098148346,
              0.015099720098078251,
              -0.025971906259655952,
              -0.2138587385416031,
              -0.12622173130512238,
              0.050944119691848755
            ],
            [
              0.01904701441526413,
              0.023536115884780884,
              0.08654842525720596,
              -0.08191308379173279,
              0.12409913539886475,
              -0.11236666887998581,
              0.16565516591072083,
              -0.17744702100753784,
              0.08171036839485168,
              -0.05813738703727722
            ],
            [
              0.029901593923568726,
              -0.2888784408569336,
              -0.03226892650127411,
              0.04323912411928177,
              0.1701856106519699,
              -0.07016084343194962,
              -0.08632136136293411,
              0.1835043579339981,
              -0.028390157967805862,
              -0.2878775894641876
            ]
          ]
        ]
      },
      {
        "bias": 0.1329994797706604,
        "weights": [
          [
            [
              0.15786057710647583,
              -0.154084250330925,
              -0.29601502418518066,
              -0.24347835779190063,
              -0.0459236241877079,
              -0.13095471262931824,
              -0.1198430210351944,
              -0.35207846760749817,
              -0.2168235033750534,
              0.3107093274593353
            ],
            [
              -0.0740651935338974,
              -0.2221745252609253,
              -0.25569915771484375,
              0.02875720150768757,
              -0.13141173124313354,
              -0.22505217790603638,
              -0.11038464307785034,
              -0.43538761138916016,
              -0.08748133480548859,
              0.12467005848884583
            ],
            [
              0.0319698229432106,
              -0.03217749297618866,
              0.001438779174350202,
              0.0027153557166457176,
              0.00989856943488121,
              -0.28878194093704224,
              0.2725876569747925,
              -0.2166331559419632,
              0.10970516502857208,
              -0.174795463681221
            ]
          ],
          [
            [
              0.29270270466804504,
              -0.20102956891059875,
              -0.2160276621580124,
              -0.26612287759780884,
              0.11715572327375412,
              -0.2956068217754364,
              0.14974847435951233,
              -0.44742366671562195,
              -0.025925323367118835,
              0.029706118628382683
            ],
            [
              0.023259613662958145,
              -0.22740717232227325,
              -0.014707139693200588,
              0.005832700990140438,
              0.13207104802131653,
              0.07268402725458145,
              0.20893190801143646,
              -0.24585512280464172,
              -0.07378701865673065,
              -0.248246967792511
            ],
            [
              -0.08387815207242966,
              -0.21225129067897797,
              0.17583291232585907,
              0.09887760132551193,
              0.2756251096725464,
              0.14678142964839935,
              0.08826760947704315,
              0.18805845081806183,
              0.19928587973117828,
              -0.43572431802749634
            ]
          ],
          [
            [
              0.11015060544013977,
              -0.2387600839138031,
              0.12711641192436218,
              -0.023354243487119675,
              0.10995707660913467,
              -0.25003358721733093,
              0.17872340977191925,
              -0.06415370851755142,
              0.28661254048347473,
              -0.3015728294849396
            ],
            [
              -0.1517484188079834,
              0.14384876191616058,
              0.2340908795595169,
              0.02643907628953457,
              0.2110024392604828,
              0.133541077375412,
              0.12048359215259552,
              0.12132787704467773,
              0.16124007105827332,
              -0.40676698088645935
            ],
            [
              -0.2015693634748459,
              0.02799263224005699,
              0.24458685517311096,
              0.1109037771821022,
              -0.13849914073944092,
              0.22108715772628784,
              -0.09249863773584366,
              0.25822627544403076,
              0.28073135018348694,
              -0.3216056227684021
            ]
          ]
        ]
      },
      {
        "bias": -0.07386710494756699,
        "weights": [
          [
            [
              0.02010302059352398,
              0.07256362587213516,
              0.11010869592428207,
              0.07221788913011551,
              -0.0926080197095871,
              0.1616116315126419,
              -0.1382644772529602,
              -0.045035623013973236,
              0.16521459817886353,
              -0.3225846290588379
            ],
            [
              -0.047281745821237564,
              -0.06561922281980515,
              0.025556664913892746,
              -0.015530935488641262,
              0.07336727529764175,
              -0.11650697886943817,
              -0.11151621490716934,
              -0.14057230949401855,
              -0.0888383537530899,
              -0.14987683296203613
            ],
            [
              0.05270041152834892,
              -0.07994206249713898,
              -0.1521381288766861,
              -0.2622903883457184,
              -0.06251992285251617,
              -0.16621118783950806,
              -0.055497001856565475,
              -0.028402037918567657,
              -0.0612361766397953,
              0.09017716348171234
            ]
          ],
          [
            [
              -0.024112747982144356,
              0.10821738839149475,
              0.21545936167240143,
              0.15783801674842834,
              -0.2569005489349365,
              -0.04129933938384056,
              -0.003251837333664298,
              0.1683068573474884,
              -0.04093769192695618,
              -0.34121042490005493
            ],
            [
              0.0803360864520073,
              -0.015714261680841446,
              -0.09410933405160904,
              0.0418037585914135,
              -0.00953007210046053,
              0.11430253833532333,
              -0.12274425476789474,
              -0.1059798151254654,
              0.1682186871767044,
              0.02017275057733059
            ],
            [
              0.21876463294029236,
              0.08591272681951523,
              -0.015011281706392765,
              0.032644372433423996,
              0.2579060196876526,
              -0.058285895735025406,
              0.17208430171012878,
              0.08174321800470352,
              0.13294219970703125,
              0.3206630349159241
            ]
          ],
          [
            [
              0.1226811483502388,
              0.10448674857616425,
              0.09162665903568268,
              0.08895755559206009,
              -0.24561740458011627,
              0.09897764027118683,
              -0.20882007479667664,
              -0.13811160624027252,
              0.1090012788772583,
              0.2063167542219162
            ],
            [
              0.0957610160112381,
              -0.08498121052980423,
              0.02351989969611168,
              0.16950783133506775,
              -0.01663793995976448,
              0.20398737490177155,
              -0.21758872270584106,
              -0.023723721504211426,
              -0.08561483025550842,
              0.14401723444461823
            ],
            [
              0.13803189992904663,
              0.0051745083183050156,
              -0.1603616327047348,
              0.03313533961772919,
              0.12211582064628601,
              0.3196140229701996,
              -0.14294148981571198,
              0.2819797694683075,
              -0.18846793472766876,
              0.09557818621397018
            ]
          ]
        ]
      },
      {
        "bias": 0.06610719859600067,
        "weights": [
          [
            [
              0.07870656996965408,
              -0.07197926938533783,
              -0.0091128284111619,
              0.07491198182106018,
              0.11216989904642105,
              0.0664510503411293,
              0.024461880326271057,
              0.07704078406095505,
              0.16325046122074127,
              0.02839408628642559
            ],
            [
              -0.05652662366628647,
              0.10085475444793701,
              -0.013870159164071083,
              -0.2997455298900604,
              -0.09367959946393967,
              -0.10638105869293213,
              0.12661242485046387,
              0.00280891265720129,
              -0.010122831910848618,
              0.17089660465717316
            ],
            [
              -0.1506747603416443,
              0.05582025647163391,
              -0.11561452597379684,
              -0.3285556137561798,
              0.1232033371925354,
              -0.09288613498210907,
              0.15551228821277618,
              -0.09171708673238754,
              0.10682053118944168,
              -0.013406429439783096
            ]
          ],
          [
            [
              0.07765557616949081,
              -0.14642278850078583,
              0.14583547413349152,
              0.03208952397108078,
              0.06997137516736984,
              0.06553127616643906,
              -0.033596765249967575,
              -0.28331083059310913,
              0.06046007201075554,
              0.08291245251893997
            ],
            [
              0.32489773631095886,
              0.06493024528026581,
              0.07770369201898575,
              0.12173866480588913,
              0.2895185053348541,
              0.10957012325525284,
              0.07173740863800049,
              -0.2465197890996933,
              0.003987689968198538,
              0.22093743085861206
            ],
            [
              0.22750899195671082,
              0.07455333322286606,
              -0.10603789240121841,
              0.1368618607521057,
              0.3857128918170929,
              -0.07544592022895813,
              0.05377090722322464,
              -0.15589404106140137,
              0.1336829662322998,
              0.2834553122520447
            ]
          ],
          [
            [
              -0.04821858927607536,
              -0.09577472507953644,
              0.04712105542421341,
              -0.0013440342154353857,
              -0.20874744653701782,
              0.18602657318115234,
              -0.2717374861240387,
              0.293201744556427,
              0.03590821474790573,
              0.1790606528520584
            ],
            [
              -0.05093018710613251,
              -0.13900431990623474,
              0.07461605221033096,
              0.0849834531545639,
              -0.1696801781654358,
              0.1439877152442932,
              -0.29530632495880127,
              -0.0469871424138546,
              -0.02990802936255932,
              -0.036711741238832474
            ],
            [
              -0.0761498287320137,
              -0.10878142714500427,
              0.025387372821569443,
              0.17548193037509918,
              0.09039528667926788,
              -0.066842220723629,
              -0.3602246344089508,
              -0.0666324570775032,
              0.05460185557603836,
              -0.018735704943537712
            ]
          ]
        ]
      },
      {
        "bias": -0.09562194347381592,
        "weights": [
          [
            [
              -0.008839678019285202,
              -0.05007585883140564,
              0.1681290566921234,
              0.1415005624294281,
              0.06370362639427185,
              0.18402716517448425,
              -0.03543366491794586,
              0.2177138477563858,
              0.05177619308233261,
              0.12171485275030136
            ],
            [
              -0.06959996372461319,
              0.059956472367048264,
              0.037857744842767715,
              0.11918332427740097,
              0.07530217617750168,
              0.12077625840902328,
              -0.062176574021577835,
              0.07502730190753937,
              0.2626495659351349,
              0.0030417563393712044
            ],
            [
              0.08656489849090576,
              0.031369272619485855,
              -0.0198335200548172,
              -0.2368147075176239,
              0.21225203573703766,
              -0.08833885937929153,
              0.17310522496700287,
              -0.2626442611217499,
              0.26312753558158875,
              0.24827685952186584
            ]
          ],
          [
            [
              -0.15296220779418945,
              -0.23239922523498535,
              -0.254015177488327,
              0.22822625935077667,
              -0.31298932433128357,
              0.009568781591951847,
              -0.3460846245288849,
              0.06827312707901001,
              0.04128437489271164,
              0.0924580842256546
            ],
            [
              -0.07616580277681351,
              -0.12639030814170837,
              -0.12041381001472473,
              -0.13774095475673676,
              0.06916648149490356,
              -0.033171068876981735,
              0.11221903562545776,
              -0.3303704261779785,
              0.2554977536201477,
              0.02895156666636467
            ],
            [
              0.11467093229293823,
              0.058626964688301086,
              0.016807852312922478,
              0.24476806819438934,
              0.34995943307876587,
              -0.03449329733848572,
              0.16329476237297058,
              -0.32000914216041565,
              0.007741411216557026,
              0.03902852162718773
            ]
          ],
          [
            [
              -0.17432349920272827,
              -0.7579092383384705,
              -0.5070623755455017,
              -0.1220717504620552,
              -0.08083946257829666,
              -0.39692002534866333,
              0.14561498165130615,
              -0.42858606576919556,
              -0.3555300831794739,
              0.16006791591644287
            ],
            [
              -0.23038987815380096,
              -0.07407611608505249,
              0.028094591572880745,
              -0.04254503920674324,
              -0.026956161484122276,
              0.11646617949008942,
              0.05308454856276512,
              -0.09796588122844696,
              -0.23133543133735657,
              0.05809535086154938
            ],
            [
              -0.3201674520969391,
              -0.14050248265266418,
              0.15040090680122375,
              0.27312347292900085,
              -0.0070899417623877525,
              -0.05724121630191803,
              -0.015708737075328827,
              0.1899947226047516,
              -0.15859051048755646,
              0.0615258514881134
            ]
          ]
        ]
      },
      {
        "bias": 0.05926501378417015,
        "weights": [
          [
            [
              -0.027723487466573715,
              -0.050083935260772705,
              0.016506830230355263,
              -0.047703444957733154,
              -0.015479298308491707,
              -0.22397257387638092,
              0.033730048686265945,
              -0.05801400914788246,
              -0.04169870913028717,
              0.11271904408931732
            ],
            [
              0.11238446086645126,
              -0.1358075588941574,
              0.03920785337686539,
              0.07914300262928009,
              0.23788172006607056,
              0.27175334095954895,
              -0.06796404719352722,
              0.019138595089316368,
              -0.1866472065448761,
              -0.1798320710659027
            ],
            [
              0.18902279436588287,
              -0.04809028282761574,
              0.14067326486110687,
              0.15650944411754608,
              0.1259729117155075,
              0.30880308151245117,
              -0.1729929894208908,
              0.35644689202308655,
              0.022780435159802437,
              0.025119366124272346
            ]
          ],
          [
            [
              -0.1554783433675766,
              0.1442074328660965,
              -0.10815005004405975,
              -0.08578088879585266,
              0.10265292972326279,
              0.04365374520421028,
              0.0014510671608150005,
              0.04383450374007225,
              0.09478215128183365,
              -0.0426424965262413
            ],
            [
              0.22369229793548584,
              -0.24339772760868073,
              0.053450774401426315,
              0.17614853382110596,
              0.038750749081373215,
              0.12170293182134628,
